digraph Tree {
node [shape=box, style="filled, rounded", color="black", fontname=helvetica] ;
edge [fontname=helvetica] ;
0 [label="major_version <= 1.5\ngini = 0.36\nsamples = 4562\nvalue = [1691, 5476]\nclass = succ", fillcolor="#399de5b0"] ;
1 [label="rating_count_tot <= 4461.0\ngini = 0.38\nsamples = 2615\nvalue = [1064, 3108]\nclass = succ", fillcolor="#399de5a8"] ;
0 -> 1 [labeldistance=2.5, labelangle=45, headlabel="True"] ;
2 [label="rating_count_ver <= 24.5\ngini = 0.39\nsamples = 2282\nvalue = [986, 2655]\nclass = succ", fillcolor="#399de5a0"] ;
1 -> 2 ;
3 [label="rating_count_previo <= 286.5\ngini = 0.37\nsamples = 1261\nvalue = [496, 1510]\nclass = succ", fillcolor="#399de5ab"] ;
2 -> 3 ;
4 [label="gini = 0.38\nsamples = 1109\nvalue = [460, 1316]\nclass = succ", fillcolor="#399de5a6"] ;
3 -> 4 ;
5 [label="gini = 0.26\nsamples = 152\nvalue = [36, 194]\nclass = succ", fillcolor="#399de5d0"] ;
3 -> 5 ;
6 [label="major_version <= 0.5\ngini = 0.42\nsamples = 1021\nvalue = [490, 1145]\nclass = succ", fillcolor="#399de592"] ;
2 -> 6 ;
7 [label="gini = 0.5\nsamples = 11\nvalue = [11, 9]\nclass = not succ", fillcolor="#e581392e"] ;
6 -> 7 ;
8 [label="gini = 0.42\nsamples = 1010\nvalue = [479, 1136]\nclass = succ", fillcolor="#399de593"] ;
6 -> 8 ;
9 [label="sup_devices.num <= 46.0\ngini = 0.25\nsamples = 333\nvalue = [78, 453]\nclass = succ", fillcolor="#399de5d3"] ;
1 -> 9 ;
10 [label="isNotFree <= 0.5\ngini = 0.24\nsamples = 326\nvalue = [73, 445]\nclass = succ", fillcolor="#399de5d5"] ;
9 -> 10 ;
11 [label="gini = 0.28\nsamples = 215\nvalue = [59, 290]\nclass = succ", fillcolor="#399de5cb"] ;
10 -> 11 ;
12 [label="gini = 0.15\nsamples = 111\nvalue = [14, 155]\nclass = succ", fillcolor="#399de5e8"] ;
10 -> 12 ;
13 [label="size_bytes <= 4599679.0\ngini = 0.47\nsamples = 7\nvalue = [5, 8]\nclass = succ", fillcolor="#399de560"] ;
9 -> 13 ;
14 [label="gini = 0.0\nsamples = 1\nvalue = [3, 0]\nclass = not succ", fillcolor="#e58139ff"] ;
13 -> 14 ;
15 [label="gini = 0.32\nsamples = 6\nvalue = [2, 8]\nclass = succ", fillcolor="#399de5bf"] ;
13 -> 15 ;
16 [label="user_rating <= 3.25\ngini = 0.33\nsamples = 1947\nvalue = [627, 2368]\nclass = succ", fillcolor="#399de5bb"] ;
0 -> 16 [labeldistance=2.5, labelangle=-45, headlabel="False"] ;
17 [label="major_version <= 8.5\ngini = 0.41\nsamples = 388\nvalue = [174, 426]\nclass = succ", fillcolor="#399de597"] ;
16 -> 17 ;
18 [label="lang.num <= 35.0\ngini = 0.39\nsamples = 369\nvalue = [154, 415]\nclass = succ", fillcolor="#399de5a0"] ;
17 -> 18 ;
19 [label="gini = 0.39\nsamples = 367\nvalue = [151, 414]\nclass = succ", fillcolor="#399de5a2"] ;
18 -> 19 ;
20 [label="gini = 0.38\nsamples = 2\nvalue = [3, 1]\nclass = not succ", fillcolor="#e58139aa"] ;
18 -> 20 ;
21 [label="size_bytes <= 216065536.0\ngini = 0.46\nsamples = 19\nvalue = [20, 11]\nclass = not succ", fillcolor="#e5813973"] ;
17 -> 21 ;
22 [label="gini = 0.36\nsamples = 15\nvalue = [20, 6]\nclass = not succ", fillcolor="#e58139b3"] ;
21 -> 22 ;
23 [label="gini = 0.0\nsamples = 4\nvalue = [0, 5]\nclass = succ", fillcolor="#399de5ff"] ;
21 -> 23 ;
24 [label="rating_count_previo <= 0.5\ngini = 0.31\nsamples = 1559\nvalue = [453, 1942]\nclass = succ", fillcolor="#399de5c4"] ;
16 -> 24 ;
25 [label="lang.num <= 1.5\ngini = 0.5\nsamples = 13\nvalue = [11, 13]\nclass = succ", fillcolor="#399de527"] ;
24 -> 25 ;
26 [label="gini = 0.49\nsamples = 10\nvalue = [10, 8]\nclass = not succ", fillcolor="#e5813933"] ;
25 -> 26 ;
27 [label="gini = 0.28\nsamples = 3\nvalue = [1, 5]\nclass = succ", fillcolor="#399de5cc"] ;
25 -> 27 ;
28 [label="rating_count_ver <= 6535.0\ngini = 0.3\nsamples = 1546\nvalue = [442, 1929]\nclass = succ", fillcolor="#399de5c5"] ;
24 -> 28 ;
29 [label="gini = 0.31\nsamples = 1525\nvalue = [442, 1895]\nclass = succ", fillcolor="#399de5c4"] ;
28 -> 29 ;
30 [label="gini = 0.0\nsamples = 21\nvalue = [0, 34]\nclass = succ", fillcolor="#399de5ff"] ;
28 -> 30 ;
}